digraph Tree {
node [shape=box, style="filled", color="black"] ;
0 [label="Contract_Month-to-month <= 0.5\ngini = 0.394\nsamples = 5274\nvalue = [3852, 1422]", fillcolor="#efb082"] ;
1 [label="MonthlyCharges <= 93.675\ngini = 0.127\nsamples = 2342\nvalue = [2183, 159]", fillcolor="#e78a47"] ;
0 -> 1 [labeldistance=2.5, labelangle=45, headlabel="True"] ;
2 [label="gini = 0.074\nsamples = 1766\nvalue = [1698, 68]", fillcolor="#e68641"] ;
1 -> 2 ;
3 [label="gini = 0.266\nsamples = 576\nvalue = [485, 91]", fillcolor="#ea995e"] ;
1 -> 3 ;
4 [label="InternetService_Fiber optic <= 0.5\ngini = 0.49\nsamples = 2932\nvalue = [1669, 1263]", fillcolor="#f9e0cf"] ;
0 -> 4 [labeldistance=2.5, labelangle=-45, headlabel="False"] ;
5 [label="gini = 0.411\nsamples = 1324\nvalue = [942, 382]", fillcolor="#f0b489"] ;
4 -> 5 ;
6 [label="gini = 0.495\nsamples = 1608\nvalue = [727, 881]", fillcolor="#dceefa"] ;
4 -> 6 ;
}